digraph Tree {
node [shape=box, style="filled", color="black", fontname="helvetica"] ;
edge [fontname="helvetica"] ;
0 [label="tGravityAcc-min()-X <= 0.096\ngini = 0.831\nsamples = 7352\nvalue = [1226, 1073, 986, 1286, 1374, 1407]\nclass = LAYING", fillcolor="#fffefe"] ;
1 [label="gini = 0.0\nsamples = 1407\nvalue = [0, 0, 0, 0, 0, 1407]\nclass = LAYING", fillcolor="#e5399d"] ;
0 -> 1 [labeldistance=2.5, labelangle=45, headlabel="True"] ;
2 [label="fBodyAccJerk-bandsEnergy()-1,16 <= -0.974\ngini = 0.797\nsamples = 5945\nvalue = [1226, 1073, 986, 1286, 1374, 0]\nclass = STANDING", fillcolor="#fdfbff"] ;
0 -> 2 [labeldistance=2.5, labelangle=-45, headlabel="False"] ;
3 [label="angle(Y,gravityMean) <= 0.14\ngini = 0.499\nsamples = 2660\nvalue = [0, 0, 0, 1286, 1374, 0]\nclass = STANDING", fillcolor="#f7f2fd"] ;
2 -> 3 ;
4 [label="tGravityAcc-energy()-Y <= -1.0\ngini = 0.234\nsamples = 1357\nvalue = [0, 0, 0, 1173, 184, 0]\nclass = SITTING", fillcolor="#58ace9"] ;
3 -> 4 ;
5 [label="angle(Z,gravityMean) <= -0.022\ngini = 0.453\nsamples = 95\nvalue = [0, 0, 0, 33, 62, 0]\nclass = STANDING", fillcolor="#c4a2f3"] ;
4 -> 5 ;
6 [label="tBodyGyroJerk-max()-X <= -0.983\ngini = 0.468\nsamples = 51\nvalue = [0, 0, 0, 32, 19, 0]\nclass = SITTING", fillcolor="#afd7f4"] ;
5 -> 6 ;
7 [label="tBodyAccJerk-arCoeff()-X,3 <= 0.411\ngini = 0.111\nsamples = 34\nvalue = [0, 0, 0, 32, 2, 0]\nclass = SITTING", fillcolor="#45a3e7"] ;
6 -> 7 ;
8 [label="gini = 0.0\nsamples = 32\nvalue = [0, 0, 0, 32, 0, 0]\nclass = SITTING", fillcolor="#399de5"] ;
7 -> 8 ;
9 [label="gini = 0.0\nsamples = 2\nvalue = [0, 0, 0, 0, 2, 0]\nclass = STANDING", fillcolor="#8139e5"] ;
7 -> 9 ;
10 [label="gini = 0.0\nsamples = 17\nvalue = [0, 0, 0, 0, 17, 0]\nclass = STANDING", fillcolor="#8139e5"] ;
6 -> 10 ;
11 [label="tBodyGyroJerk-arCoeff()-Z,4 <= -0.249\ngini = 0.044\nsamples = 44\nvalue = [0, 0, 0, 1, 43, 0]\nclass = STANDING", fillcolor="#843ee6"] ;
5 -> 11 ;
12 [label="gini = 0.0\nsamples = 1\nvalue = [0, 0, 0, 1, 0, 0]\nclass = SITTING", fillcolor="#399de5"] ;
11 -> 12 ;
13 [label="gini = 0.0\nsamples = 43\nvalue = [0, 0, 0, 0, 43, 0]\nclass = STANDING", fillcolor="#8139e5"] ;
11 -> 13 ;
14 [label="tBodyGyro-max()-X <= -0.869\ngini = 0.175\nsamples = 1262\nvalue = [0, 0, 0, 1140, 122, 0]\nclass = SITTING", fillcolor="#4ea7e8"] ;
4 -> 14 ;
15 [label="tBodyGyro-correlation()-Y,Z <= 0.418\ngini = 0.068\nsamples = 994\nvalue = [0, 0, 0, 959, 35, 0]\nclass = SITTING", fillcolor="#40a1e6"] ;
14 -> 15 ;
16 [label="tGravityAcc-min()-X <= 0.99\ngini = 0.034\nsamples = 927\nvalue = [0, 0, 0, 911, 16, 0]\nclass = SITTING", fillcolor="#3c9fe5"] ;
15 -> 16 ;
17 [label="tBodyAccJerk-arCoeff()-Y,3 <= -0.615\ngini = 0.012\nsamples = 851\nvalue = [0, 0, 0, 846, 5, 0]\nclass = SITTING", fillcolor="#3a9ee5"] ;
16 -> 17 ;
18 [label="gini = 0.0\nsamples = 1\nvalue = [0, 0, 0, 0, 1, 0]\nclass = STANDING", fillcolor="#8139e5"] ;
17 -> 18 ;
19 [label="gini = 0.009\nsamples = 850\nvalue = [0, 0, 0, 846, 4, 0]\nclass = SITTING", fillcolor="#3a9de5"] ;
17 -> 19 ;
20 [label="tGravityAcc-min()-Z <= 0.067\ngini = 0.248\nsamples = 76\nvalue = [0, 0, 0, 65, 11, 0]\nclass = SITTING", fillcolor="#5baee9"] ;
16 -> 20 ;
21 [label="gini = 0.03\nsamples = 66\nvalue = [0, 0, 0, 65, 1, 0]\nclass = SITTING", fillcolor="#3c9fe5"] ;
20 -> 21 ;
22 [label="gini = 0.0\nsamples = 10\nvalue = [0, 0, 0, 0, 10, 0]\nclass = STANDING", fillcolor="#8139e5"] ;
20 -> 22 ;
23 [label="tGravityAcc-min()-X <= 0.961\ngini = 0.406\nsamples = 67\nvalue = [0, 0, 0, 48, 19, 0]\nclass = SITTING", fillcolor="#87c4ef"] ;
15 -> 23 ;
24 [label="tGravityAcc-arCoeff()-Z,2 <= 0.98\ngini = 0.046\nsamples = 42\nvalue = [0, 0, 0, 41, 1, 0]\nclass = SITTING", fillcolor="#3e9fe6"] ;
23 -> 24 ;
25 [label="gini = 0.0\nsamples = 41\nvalue = [0, 0, 0, 41, 0, 0]\nclass = SITTING", fillcolor="#399de5"] ;
24 -> 25 ;
26 [label="gini = 0.0\nsamples = 1\nvalue = [0, 0, 0, 0, 1, 0]\nclass = STANDING", fillcolor="#8139e5"] ;
24 -> 26 ;
27 [label="fBodyGyro-mean()-Z <= -0.979\ngini = 0.403\nsamples = 25\nvalue = [0, 0, 0, 7, 18, 0]\nclass = STANDING", fillcolor="#b286ef"] ;
23 -> 27 ;
28 [label="gini = 0.0\nsamples = 18\nvalue = [0, 0, 0, 0, 18, 0]\nclass = STANDING", fillcolor="#8139e5"] ;
27 -> 28 ;
29 [label="gini = 0.0\nsamples = 7\nvalue = [0, 0, 0, 7, 0, 0]\nclass = SITTING", fillcolor="#399de5"] ;
27 -> 29 ;
30 [label="tGravityAcc-max()-Y <= 0.069\ngini = 0.438\nsamples = 268\nvalue = [0, 0, 0, 181, 87, 0]\nclass = SITTING", fillcolor="#98ccf1"] ;
14 -> 30 ;
31 [label="fBodyGyro-iqr()-Y <= -0.987\ngini = 0.498\nsamples = 163\nvalue = [0, 0, 0, 76, 87, 0]\nclass = STANDING", fillcolor="#efe6fc"] ;
30 -> 31 ;
32 [label="tBodyGyroJerk-mad()-X <= -0.993\ngini = 0.057\nsamples = 34\nvalue = [0, 0, 0, 1, 33, 0]\nclass = STANDING", fillcolor="#853fe6"] ;
31 -> 32 ;
33 [label="gini = 0.0\nsamples = 1\nvalue = [0, 0, 0, 1, 0, 0]\nclass = SITTING", fillcolor="#399de5"] ;
32 -> 33 ;
34 [label="gini = 0.0\nsamples = 33\nvalue = [0, 0, 0, 0, 33, 0]\nclass = STANDING", fillcolor="#8139e5"] ;
32 -> 34 ;
35 [label="tBodyGyro-iqr()-X <= -0.977\ngini = 0.487\nsamples = 129\nvalue = [0, 0, 0, 75, 54, 0]\nclass = SITTING", fillcolor="#c8e4f8"] ;
31 -> 35 ;
36 [label="gini = 0.208\nsamples = 51\nvalue = [0, 0, 0, 45, 6, 0]\nclass = SITTING", fillcolor="#53aae8"] ;
35 -> 36 ;
37 [label="gini = 0.473\nsamples = 78\nvalue = [0, 0, 0, 30, 48, 0]\nclass = STANDING", fillcolor="#d0b5f5"] ;
35 -> 37 ;
38 [label="gini = 0.0\nsamples = 105\nvalue = [0, 0, 0, 105, 0, 0]\nclass = SITTING", fillcolor="#399de5"] ;
30 -> 38 ;
39 [label="tBodyGyro-min()-X <= 0.845\ngini = 0.158\nsamples = 1303\nvalue = [0, 0, 0, 113, 1190, 0]\nclass = STANDING", fillcolor="#8d4ce7"] ;
3 -> 39 ;
40 [label="tBodyGyro-max()-X <= -0.893\ngini = 0.121\nsamples = 1240\nvalue = [0, 0, 0, 80, 1160, 0]\nclass = STANDING", fillcolor="#8a47e7"] ;
39 -> 40 ;
41 [label="gini = 0.0\nsamples = 8\nvalue = [0, 0, 0, 8, 0, 0]\nclass = SITTING", fillcolor="#399de5"] ;
40 -> 41 ;
42 [label="tBodyGyro-correlation()-X,Y <= 0.656\ngini = 0.11\nsamples = 1232\nvalue = [0, 0, 0, 72, 1160, 0]\nclass = STANDING", fillcolor="#8945e7"] ;
40 -> 42 ;
43 [label="tBodyAccJerk-iqr()-Z <= -0.98\ngini = 0.094\nsamples = 1214\nvalue = [0, 0, 0, 60, 1154, 0]\nclass = STANDING", fillcolor="#8843e6"] ;
42 -> 43 ;
44 [label="tBodyGyro-arCoeff()-Y,1 <= -0.545\ngini = 0.022\nsamples = 802\nvalue = [0, 0, 0, 9, 793, 0]\nclass = STANDING", fillcolor="#823be5"] ;
43 -> 44 ;
45 [label="gini = 0.48\nsamples = 10\nvalue = [0, 0, 0, 4, 6, 0]\nclass = STANDING", fillcolor="#d5bdf6"] ;
44 -> 45 ;
46 [label="gini = 0.013\nsamples = 792\nvalue = [0, 0, 0, 5, 787, 0]\nclass = STANDING", fillcolor="#823ae5"] ;
44 -> 46 ;
47 [label="fBodyGyro-max()-X <= -0.982\ngini = 0.217\nsamples = 412\nvalue = [0, 0, 0, 51, 361, 0]\nclass = STANDING", fillcolor="#9355e9"] ;
43 -> 47 ;
48 [label="gini = 0.483\nsamples = 59\nvalue = [0, 0, 0, 35, 24, 0]\nclass = SITTING", fillcolor="#c1e0f7"] ;
47 -> 48 ;
49 [label="gini = 0.087\nsamples = 353\nvalue = [0, 0, 0, 16, 337, 0]\nclass = STANDING", fillcolor="#8742e6"] ;
47 -> 49 ;
50 [label="fBodyBodyGyroMag-meanFreq() <= -0.277\ngini = 0.444\nsamples = 18\nvalue = [0, 0, 0, 12, 6, 0]\nclass = SITTING", fillcolor="#9ccef2"] ;
42 -> 50 ;
51 [label="gini = 0.0\nsamples = 6\nvalue = [0, 0, 0, 0, 6, 0]\nclass = STANDING", fillcolor="#8139e5"] ;
50 -> 51 ;
52 [label="gini = 0.0\nsamples = 12\nvalue = [0, 0, 0, 12, 0, 0]\nclass = SITTING", fillcolor="#399de5"] ;
50 -> 52 ;
53 [label="tGravityAcc-min()-Y <= -0.139\ngini = 0.499\nsamples = 63\nvalue = [0, 0, 0, 33, 30, 0]\nclass = SITTING", fillcolor="#edf6fd"] ;
39 -> 53 ;
54 [label="fBodyAccJerk-bandsEnergy()-1,8 <= -1.0\ngini = 0.293\nsamples = 28\nvalue = [0, 0, 0, 5, 23, 0]\nclass = STANDING", fillcolor="#9c64eb"] ;
53 -> 54 ;
55 [label="gini = 0.0\nsamples = 23\nvalue = [0, 0, 0, 0, 23, 0]\nclass = STANDING", fillcolor="#8139e5"] ;
54 -> 55 ;
56 [label="gini = 0.0\nsamples = 5\nvalue = [0, 0, 0, 5, 0, 0]\nclass = SITTING", fillcolor="#399de5"] ;
54 -> 56 ;
57 [label="angle(tBodyGyroMean,gravityMean) <= -0.449\ngini = 0.32\nsamples = 35\nvalue = [0, 0, 0, 28, 7, 0]\nclass = SITTING", fillcolor="#6ab6ec"] ;
53 -> 57 ;
58 [label="gini = 0.0\nsamples = 5\nvalue = [0, 0, 0, 0, 5, 0]\nclass = STANDING", fillcolor="#8139e5"] ;
57 -> 58 ;
59 [label="tBodyGyroJerkMag-arCoeff()3 <= -0.209\ngini = 0.124\nsamples = 30\nvalue = [0, 0, 0, 28, 2, 0]\nclass = SITTING", fillcolor="#47a4e7"] ;
57 -> 59 ;
60 [label="gini = 0.444\nsamples = 3\nvalue = [0, 0, 0, 1, 2, 0]\nclass = STANDING", fillcolor="#c09cf2"] ;
59 -> 60 ;
61 [label="gini = 0.0\nsamples = 27\nvalue = [0, 0, 0, 27, 0, 0]\nclass = SITTING", fillcolor="#399de5"] ;
59 -> 61 ;
62 [label="fBodyAccMag-energy() <= -0.525\ngini = 0.664\nsamples = 3285\nvalue = [1226, 1073, 986, 0, 0, 0]\nclass = WALKING", fillcolor="#fdf6f1"] ;
2 -> 62 ;
63 [label="tGravityAcc-arCoeff()-Z,2 <= 0.564\ngini = 0.56\nsamples = 2364\nvalue = [1207, 987, 170, 0, 0, 0]\nclass = WALKING", fillcolor="#fbebdf"] ;
62 -> 63 ;
64 [label="fBodyGyro-maxInds-X <= -0.967\ngini = 0.343\nsamples = 1367\nvalue = [1091, 143, 133, 0, 0, 0]\nclass = WALKING", fillcolor="#eb9d66"] ;
63 -> 64 ;
65 [label="fBodyAcc-max()-Y <= -0.298\ngini = 0.57\nsamples = 159\nvalue = [13, 77, 69, 0, 0, 0]\nclass = WALKING_UPSTAIRS", fillcolor="#f6fded"] ;
64 -> 65 ;
66 [label="tBodyAcc-correlation()-X,Y <= -0.219\ngini = 0.338\nsamples = 79\nvalue = [12, 4, 63, 0, 0, 0]\nclass = WALKING_DOWNSTAIRS", fillcolor="#68eb9f"] ;
65 -> 66 ;
67 [label="angle(X,gravityMean) <= -0.651\ngini = 0.088\nsamples = 65\nvalue = [0, 3, 62, 0, 0, 0]\nclass = WALKING_DOWNSTAIRS", fillcolor="#43e687"] ;
66 -> 67 ;
68 [label="gini = 0.0\nsamples = 62\nvalue = [0, 0, 62, 0, 0, 0]\nclass = WALKING_DOWNSTAIRS", fillcolor="#39e581"] ;
67 -> 68 ;
69 [label="gini = 0.0\nsamples = 3\nvalue = [0, 3, 0, 0, 0, 0]\nclass = WALKING_UPSTAIRS", fillcolor="#9de539"] ;
67 -> 69 ;
70 [label="gini = 0.255\nsamples = 14\nvalue = [12, 1, 1, 0, 0, 0]\nclass = WALKING", fillcolor="#e99457"] ;
66 -> 70 ;
71 [label="tGravityAcc-max()-X <= 0.89\ngini = 0.162\nsamples = 80\nvalue = [1, 73, 6, 0, 0, 0]\nclass = WALKING_UPSTAIRS", fillcolor="#a6e74c"] ;
65 -> 71 ;
72 [label="fBodyAccJerk-bandsEnergy()-17,24 <= -0.459\ngini = 0.077\nsamples = 76\nvalue = [1, 73, 2, 0, 0, 0]\nclass = WALKING_UPSTAIRS", fillcolor="#a1e641"] ;
71 -> 72 ;
73 [label="gini = 0.027\nsamples = 74\nvalue = [1, 73, 0, 0, 0, 0]\nclass = WALKING_UPSTAIRS", fillcolor="#9ee53c"] ;
72 -> 73 ;
74 [label="gini = 0.0\nsamples = 2\nvalue = [0, 0, 2, 0, 0, 0]\nclass = WALKING_DOWNSTAIRS", fillcolor="#39e581"] ;
72 -> 74 ;
75 [label="gini = 0.0\nsamples = 4\nvalue = [0, 0, 4, 0, 0, 0]\nclass = WALKING_DOWNSTAIRS", fillcolor="#39e581"] ;
71 -> 75 ;
76 [label="tGravityAccMag-arCoeff()1 <= -0.343\ngini = 0.198\nsamples = 1208\nvalue = [1078, 66, 64, 0, 0, 0]\nclass = WALKING", fillcolor="#e88f50"] ;
64 -> 76 ;
77 [label="tGravityAcc-energy()-Y <= -0.932\ngini = 0.606\nsamples = 81\nvalue = [12, 29, 40, 0, 0, 0]\nclass = WALKING_DOWNSTAIRS", fillcolor="#d5fae4"] ;
76 -> 77 ;
78 [label="tBodyGyroJerk-energy()-Z <= -0.845\ngini = 0.18\nsamples = 40\nvalue = [4, 0, 36, 0, 0, 0]\nclass = WALKING_DOWNSTAIRS", fillcolor="#4fe88f"] ;
77 -> 78 ;
79 [label="gini = 0.0\nsamples = 36\nvalue = [0, 0, 36, 0, 0, 0]\nclass = WALKING_DOWNSTAIRS", fillcolor="#39e581"] ;
78 -> 79 ;
80 [label="gini = 0.0\nsamples = 4\nvalue = [4, 0, 0, 0, 0, 0]\nclass = WALKING", fillcolor="#e58139"] ;
78 -> 80 ;
81 [label="tBodyAccJerk-correlation()-X,Y <= -0.007\ngini = 0.452\nsamples = 41\nvalue = [8, 29, 4, 0, 0, 0]\nclass = WALKING_UPSTAIRS", fillcolor="#c1ee81"] ;
77 -> 81 ;
82 [label="gini = 0.264\nsamples = 33\nvalue = [1, 28, 4, 0, 0, 0]\nclass = WALKING_UPSTAIRS", fillcolor="#aee95b"] ;
81 -> 82 ;
83 [label="gini = 0.219\nsamples = 8\nvalue = [7, 1, 0, 0, 0, 0]\nclass = WALKING", fillcolor="#e99355"] ;
81 -> 83 ;
84 [label="tBodyAcc-correlation()-X,Y <= -0.467\ngini = 0.104\nsamples = 1127\nvalue = [1066, 37, 24, 0, 0, 0]\nclass = WALKING", fillcolor="#e68844"] ;
76 -> 84 ;
85 [label="tBodyAcc-std()-Y <= -0.063\ngini = 0.658\nsamples = 30\nvalue = [8, 12, 10, 0, 0, 0]\nclass = WALKING_UPSTAIRS", fillcolor="#f5fceb"] ;
84 -> 85 ;
86 [label="gini = 0.0\nsamples = 10\nvalue = [0, 0, 10, 0, 0, 0]\nclass = WALKING_DOWNSTAIRS", fillcolor="#39e581"] ;
85 -> 86 ;
87 [label="gini = 0.48\nsamples = 20\nvalue = [8, 12, 0, 0, 0, 0]\nclass = WALKING_UPSTAIRS", fillcolor="#def6bd"] ;
85 -> 87 ;
88 [label="fBodyAccMag-std() <= -0.262\ngini = 0.069\nsamples = 1097\nvalue = [1058, 25, 14, 0, 0, 0]\nclass = WALKING", fillcolor="#e68640"] ;
84 -> 88 ;
89 [label="gini = 0.044\nsamples = 1076\nvalue = [1052, 16, 8, 0, 0, 0]\nclass = WALKING", fillcolor="#e6843d"] ;
88 -> 89 ;
90 [label="gini = 0.653\nsamples = 21\nvalue = [6, 9, 6, 0, 0, 0]\nclass = WALKING_UPSTAIRS", fillcolor="#ebfad7"] ;
88 -> 90 ;
91 [label="tGravityAcc-min()-X <= 0.956\ngini = 0.268\nsamples = 997\nvalue = [116, 844, 37, 0, 0, 0]\nclass = WALKING_UPSTAIRS", fillcolor="#aeea5b"] ;
63 -> 91 ;
92 [label="tGravityAcc-energy()-Y <= -0.974\ngini = 0.17\nsamples = 917\nvalue = [56, 833, 28, 0, 0, 0]\nclass = WALKING_UPSTAIRS", fillcolor="#a7e84c"] ;
91 -> 92 ;
93 [label="tBodyAcc-correlation()-X,Y <= -0.205\ngini = 0.444\nsamples = 30\nvalue = [10, 0, 20, 0, 0, 0]\nclass = WALKING_DOWNSTAIRS", fillcolor="#9cf2c0"] ;
92 -> 93 ;
94 [label="gini = 0.0\nsamples = 20\nvalue = [0, 0, 20, 0, 0, 0]\nclass = WALKING_DOWNSTAIRS", fillcolor="#39e581"] ;
93 -> 94 ;
95 [label="gini = 0.0\nsamples = 10\nvalue = [10, 0, 0, 0, 0, 0]\nclass = WALKING", fillcolor="#e58139"] ;
93 -> 95 ;
96 [label="tGravityAcc-arCoeff()-Y,3 <= -0.306\ngini = 0.115\nsamples = 887\nvalue = [46, 833, 8, 0, 0, 0]\nclass = WALKING_UPSTAIRS", fillcolor="#a3e746"] ;
92 -> 96 ;
97 [label="tBodyAcc-max()-X <= -0.364\ngini = 0.066\nsamples = 827\nvalue = [21, 799, 7, 0, 0, 0]\nclass = WALKING_UPSTAIRS", fillcolor="#a0e640"] ;
96 -> 97 ;
98 [label="gini = 0.5\nsamples = 18\nvalue = [9, 9, 0, 0, 0, 0]\nclass = WALKING", fillcolor="#ffffff"] ;
97 -> 98 ;
99 [label="gini = 0.046\nsamples = 809\nvalue = [12, 790, 7, 0, 0, 0]\nclass = WALKING_UPSTAIRS", fillcolor="#9fe63e"] ;
97 -> 99 ;
100 [label="tBodyAccJerk-correlation()-X,Y <= -0.003\ngini = 0.505\nsamples = 60\nvalue = [25, 34, 1, 0, 0, 0]\nclass = WALKING_UPSTAIRS", fillcolor="#e6f8cc"] ;
96 -> 100 ;
101 [label="gini = 0.302\nsamples = 39\nvalue = [6, 32, 1, 0, 0, 0]\nclass = WALKING_UPSTAIRS", fillcolor="#b2eb63"] ;
100 -> 101 ;
102 [label="gini = 0.172\nsamples = 21\nvalue = [19, 2, 0, 0, 0, 0]\nclass = WALKING", fillcolor="#e88e4e"] ;
100 -> 102 ;
103 [label="tGravityAccMag-arCoeff()1 <= -0.294\ngini = 0.406\nsamples = 80\nvalue = [60, 11, 9, 0, 0, 0]\nclass = WALKING", fillcolor="#eda672"] ;
91 -> 103 ;
104 [label="fBodyAccJerk-bandsEnergy()-49,64 <= -0.92\ngini = 0.43\nsamples = 16\nvalue = [0, 11, 5, 0, 0, 0]\nclass = WALKING_UPSTAIRS", fillcolor="#caf193"] ;
103 -> 104 ;
105 [label="gini = 0.0\nsamples = 11\nvalue = [0, 11, 0, 0, 0, 0]\nclass = WALKING_UPSTAIRS", fillcolor="#9de539"] ;
104 -> 105 ;
106 [label="gini = 0.0\nsamples = 5\nvalue = [0, 0, 5, 0, 0, 0]\nclass = WALKING_DOWNSTAIRS", fillcolor="#39e581"] ;
104 -> 106 ;
107 [label="tBodyAcc-correlation()-X,Y <= -0.348\ngini = 0.117\nsamples = 64\nvalue = [60, 0, 4, 0, 0, 0]\nclass = WALKING", fillcolor="#e78946"] ;
103 -> 107 ;
108 [label="gini = 0.0\nsamples = 3\nvalue = [0, 0, 3, 0, 0, 0]\nclass = WALKING_DOWNSTAIRS", fillcolor="#39e581"] ;
107 -> 108 ;
109 [label="tBodyAcc-arCoeff()-X,4 <= 0.607\ngini = 0.032\nsamples = 61\nvalue = [60, 0, 1, 0, 0, 0]\nclass = WALKING", fillcolor="#e5833c"] ;
107 -> 109 ;
110 [label="gini = 0.0\nsamples = 60\nvalue = [60, 0, 0, 0, 0, 0]\nclass = WALKING", fillcolor="#e58139"] ;
109 -> 110 ;
111 [label="gini = 0.0\nsamples = 1\nvalue = [0, 0, 1, 0, 0, 0]\nclass = WALKING_DOWNSTAIRS", fillcolor="#39e581"] ;
109 -> 111 ;
112 [label="tBodyGyro-correlation()-Y,Z <= 0.276\ngini = 0.206\nsamples = 921\nvalue = [19, 86, 816, 0, 0, 0]\nclass = WALKING_DOWNSTAIRS", fillcolor="#52e891"] ;
62 -> 112 ;
113 [label="tGravityAcc-arCoeff()-X,3 <= -0.445\ngini = 0.107\nsamples = 860\nvalue = [17, 31, 812, 0, 0, 0]\nclass = WALKING_DOWNSTAIRS", fillcolor="#44e788"] ;
112 -> 113 ;
114 [label="fBodyAccJerk-bandsEnergy()-17,32 <= -0.964\ngini = 0.086\nsamples = 847\nvalue = [7, 31, 809, 0, 0, 0]\nclass = WALKING_DOWNSTAIRS", fillcolor="#42e687"] ;
113 -> 114 ;
115 [label="fBodyAcc-bandsEnergy()-1,8 <= -0.387\ngini = 0.499\nsamples = 27\nvalue = [0, 14, 13, 0, 0, 0]\nclass = WALKING_UPSTAIRS", fillcolor="#f8fdf1"] ;
114 -> 115 ;
116 [label="gini = 0.0\nsamples = 14\nvalue = [0, 14, 0, 0, 0, 0]\nclass = WALKING_UPSTAIRS", fillcolor="#9de539"] ;
115 -> 116 ;
117 [label="gini = 0.0\nsamples = 13\nvalue = [0, 0, 13, 0, 0, 0]\nclass = WALKING_DOWNSTAIRS", fillcolor="#39e581"] ;
115 -> 117 ;
118 [label="tBodyAccJerk-max()-X <= -0.512\ngini = 0.057\nsamples = 820\nvalue = [7, 17, 796, 0, 0, 0]\nclass = WALKING_DOWNSTAIRS", fillcolor="#3fe685"] ;
114 -> 118 ;
119 [label="gini = 0.48\nsamples = 5\nvalue = [2, 3, 0, 0, 0, 0]\nclass = WALKING_UPSTAIRS", fillcolor="#def6bd"] ;
118 -> 119 ;
120 [label="tBodyAcc-max()-X <= 0.048\ngini = 0.046\nsamples = 815\nvalue = [5, 14, 796, 0, 0, 0]\nclass = WALKING_DOWNSTAIRS", fillcolor="#3ee684"] ;
118 -> 120 ;
121 [label="gini = 0.444\nsamples = 3\nvalue = [1, 2, 0, 0, 0, 0]\nclass = WALKING_UPSTAIRS", fillcolor="#cef29c"] ;
120 -> 121 ;
122 [label="gini = 0.039\nsamples = 812\nvalue = [4, 12, 796, 0, 0, 0]\nclass = WALKING_DOWNSTAIRS", fillcolor="#3de684"] ;
120 -> 122 ;
123 [label="gini = 0.355\nsamples = 13\nvalue = [10, 0, 3, 0, 0, 0]\nclass = WALKING", fillcolor="#eda774"] ;
113 -> 123 ;
124 [label="fBodyAccJerk-bandsEnergy()-1,24 <= -0.475\ngini = 0.182\nsamples = 61\nvalue = [2, 55, 4, 0, 0, 0]\nclass = WALKING_UPSTAIRS", fillcolor="#a7e84e"] ;
112 -> 124 ;
125 [label="gini = 0.0\nsamples = 55\nvalue = [0, 55, 0, 0, 0, 0]\nclass = WALKING_UPSTAIRS", fillcolor="#9de539"] ;
124 -> 125 ;
126 [label="gini = 0.444\nsamples = 6\nvalue = [2, 0, 4, 0, 0, 0]\nclass = WALKING_DOWNSTAIRS", fillcolor="#9cf2c0"] ;
124 -> 126 ;
}